~o
<STREAMINFO> 1 13
<VECSIZE> 13<NULLD><MFCC_E><DIAGC>
~h "tiantianmfcce"
<BEGINHMM>
<NUMSTATES> 8
<STATE> 2
<NUMMIXES> 5
<MIXTURE> 1 1.712458e-01
<MEAN> 13
 1.538790e+00 1.201363e+01 1.328535e+01 1.501378e+01 1.500237e+01 1.523981e+01 1.053200e+01 8.599685e+00 6.284261e+00 2.607187e+00 1.883805e+00 3.290116e-02 6.713412e-03
<VARIANCE> 13
 3.588880e+00 1.543020e+01 1.471063e+01 4.769033e+00 1.267391e+01 6.014799e+00 5.844666e+00 2.744293e+00 1.501580e+00 1.014071e+00 3.929711e-01 6.205375e-02 3.566701e-05
<GCONST> 2.573154e+01
<MIXTURE> 2 1.540727e-01
<MEAN> 13
 -3.784605e+00 7.595475e+00 1.434694e+01 1.759114e+01 6.213708e+00 1.456093e+01 9.610711e+00 7.709703e+00 6.357232e+00 1.331361e+00 2.720227e+00 -1.027079e-01 6.959331e-03
<VARIANCE> 13
 8.839596e+00 5.872386e+00 9.930342e+00 1.782252e+01 2.215064e+01 1.305535e+01 8.255320e+00 9.379692e+00 5.390944e+00 2.045125e+00 8.884366e-01 8.492334e-02 3.566701e-05
<GCONST> 3.260903e+01
<MIXTURE> 3 1.859526e-01
<MEAN> 13
 -1.977864e+00 5.412606e+00 6.040042e+00 9.884551e+00 7.883754e+00 1.090189e+01 5.536612e+00 5.554101e+00 4.643633e+00 1.547480e+00 1.856349e+00 -1.797038e-02 7.521340e-04
<VARIANCE> 13
 2.242876e+00 3.074621e+00 5.058362e+00 6.081847e+00 5.824251e+00 6.115597e+00 3.775247e+00 2.458788e+00 1.953806e+00 1.196395e+00 4.715891e-01 5.372325e-02 3.566701e-05
<GCONST> 2.198296e+01
<MIXTURE> 4 3.207343e-01
<MEAN> 13
 2.664160e+00 9.769898e+00 1.016057e+01 1.603013e+01 -3.333002e-01 7.761975e+00 2.887368e+00 6.582006e+00 4.692346e+00 1.439758e+00 1.684511e+00 8.143139e-02 7.132933e-03
<VARIANCE> 13
 5.022633e+00 9.082988e+00 1.446901e+01 1.972473e+01 4.329039e+01 1.190340e+01 9.814192e+00 9.384021e+00 6.378039e+00 4.819587e+00 8.796296e-01 1.112630e-01 3.566701e-05
<GCONST> 3.499439e+01
<MIXTURE> 5 1.679944e-01
<MEAN> 13
 -4.840109e+00 1.308694e+00 1.250836e+00 4.706298e+00 2.592174e+00 7.036313e+00 1.656930e+00 2.600121e+00 2.921447e+00 2.166053e-01 1.681122e+00 -1.216113e-01 4.791263e-05
<VARIANCE> 13
 2.970186e+00 4.291537e+00 7.588338e+00 9.000401e+00 9.199787e+00 7.687966e+00 5.668627e+00 4.117190e+00 2.776507e+00 1.558112e+00 4.999904e-01 5.967541e-02 3.566701e-05
<GCONST> 2.578189e+01
<STATE> 3
<NUMMIXES> 5
<MIXTURE> 1 1.894876e-01
<MEAN> 13
 -1.660556e+00 5.989964e+00 8.553394e+00 1.186505e+01 -7.628367e+00 3.838978e+00 -6.565565e-01 2.467609e+00 2.887595e+00 -6.782675e-01 1.987008e+00 -5.649544e-02 1.111603e-03
<VARIANCE> 13
 6.003895e+00 6.366509e+00 8.460857e+00 1.885312e+01 5.258395e+01 1.174763e+01 8.496090e+00 8.367684e+00 5.717650e+00 3.621316e+00 8.719819e-01 9.409872e-02 3.566701e-05
<GCONST> 3.358675e+01
<MIXTURE> 2 1.562604e-01
<MEAN> 13
 -7.980796e+00 1.994548e+00 8.644821e+00 1.188152e+01 -8.153439e-01 9.367234e+00 4.925846e+00 4.836866e+00 4.757993e+00 -6.717556e-04 2.760068e+00 -1.291981e-01 8.262765e-04
<VARIANCE> 13
 1.112176e+01 7.353765e+00 1.188125e+01 2.616353e+01 2.190532e+01 1.254104e+01 6.995113e+00 8.988190e+00 5.978866e+00 2.511422e+00 9.570944e-01 1.004353e-01 3.566701e-05
<GCONST> 3.391841e+01
<MIXTURE> 3 1.766149e-01
<MEAN> 13
 1.860665e+00 4.169668e+00 3.883308e+00 1.767814e+01 -8.447193e+00 5.076644e+00 1.047994e-01 7.200505e+00 5.056705e+00 2.069752e+00 1.102808e+00 -1.612978e-01 4.900587e-03
<VARIANCE> 13
 3.838776e+00 3.597122e+00 9.227535e+00 2.589981e+01 3.062858e+01 1.729266e+01 1.210078e+01 9.222662e+00 7.223067e+00 7.768911e+00 1.079804e+00 1.324223e-01 3.566701e-05
<GCONST> 3.482241e+01
<MIXTURE> 4 1.973399e-01
<MEAN> 13
 1.991107e+00 7.427464e+00 4.178555e+00 9.339173e+00 -7.550512e+00 4.591725e-01 -4.657563e+00 2.436298e+00 1.902690e+00 1.887698e-01 1.272205e+00 9.295899e-02 1.124202e-03
<VARIANCE> 13
 6.454316e+00 7.864372e+00 9.424947e+00 1.604469e+01 2.868206e+01 1.392579e+01 9.432953e+00 1.058550e+01 8.032077e+00 3.780093e+00 1.153377e+00 1.397621e-01 3.566701e-05
<GCONST> 3.477873e+01
<MIXTURE> 5 2.802972e-01
<MEAN> 13
 -5.468074e-01 -3.948830e-01 -1.572827e+00 1.295626e+01 -1.458646e+01 3.279800e+00 -2.886554e+00 5.397144e+00 4.377875e+00 -1.200846e-01 6.551799e-01 -1.610299e-01 2.792596e-03
<VARIANCE> 13
 5.709225e+00 6.247536e+00 1.288984e+01 2.592894e+01 3.192362e+01 2.764081e+01 1.348779e+01 1.106083e+01 8.797985e+00 7.977444e+00 1.466735e+00 1.396481e-01 3.566701e-05
<GCONST> 3.749057e+01
<STATE> 4
<NUMMIXES> 5
<MIXTURE> 1 2.529217e-01
<MEAN> 13
 -8.389580e+00 -7.917609e-01 2.348903e+00 4.486871e+00 -6.603533e+00 2.095689e+00 -1.324214e+00 5.319175e-01 1.526522e+00 -1.504471e+00 1.740379e+00 -2.666479e-01 6.699637e-04
<VARIANCE> 13
 1.404806e+01 7.625667e+00 1.599641e+01 2.355093e+01 2.947445e+01 1.398287e+01 8.833042e+00 8.816751e+00 6.136070e+00 2.936838e+00 1.111703e+00 1.165903e-01 3.566701e-05
<GCONST> 3.548149e+01
<MIXTURE> 2 4.132435e-01
<MEAN> 13
 -2.073574e+00 2.902252e+00 9.721308e-01 4.899319e+00 -1.267461e+01 -3.618378e+00 -8.450661e+00 -1.540168e+00 -4.145255e-01 -2.291082e+00 5.394572e-01 -3.303397e-01 7.274391e-04
<VARIANCE> 13
 1.064043e+01 6.936409e+00 1.260846e+01 2.099614e+01 3.590473e+01 1.342229e+01 1.396215e+01 8.512362e+00 7.969468e+00 4.693436e+00 1.529966e+00 1.797680e-01 3.566701e-05
<GCONST> 3.681787e+01
<MIXTURE> 3 2.602897e-01
<MEAN> 13
 -2.067413e+00 -2.610646e+00 -4.389653e+00 1.033799e+01 -1.978893e+01 -4.683311e+00 -9.005025e+00 1.677996e+00 1.126455e+00 -1.008731e+00 -1.905535e-01 -4.808371e-01 3.396013e-03
<VARIANCE> 13
 7.311603e+00 6.435507e+00 1.174354e+01 2.834996e+01 3.014635e+01 1.753405e+01 1.193574e+01 1.019745e+01 7.295293e+00 8.888564e+00 1.888972e+00 1.837991e-01 3.566701e-05
<GCONST> 3.749633e+01
<MIXTURE> 4 3.367455e-02
<MEAN> 13
 5.865809e-01 -3.361771e+00 -5.901034e+00 1.786483e+01 -1.668303e+01 2.776155e+00 -3.682980e+00 5.717468e+00 4.534166e+00 3.272712e+00 1.063277e-01 -3.809038e-01 3.474460e-02
<VARIANCE> 13
 9.656251e+00 1.051738e+01 2.203744e+01 2.301976e+01 4.713812e+01 4.279531e+01 2.394390e+01 1.190135e+01 8.652621e+00 4.165366e+00 1.548947e+00 9.752204e-02 5.456589e-04
<GCONST> 4.218505e+01
<MIXTURE> 5 3.987053e-02
<MEAN> 13
 -6.796707e+00 -5.962296e+00 -4.949283e+00 8.777757e+00 -2.479829e+01 -7.091018e+00 -1.116263e+01 1.336032e+00 2.444869e+00 -2.501834e+00 -1.453103e-01 -4.681600e-01 1.415915e-01
<VARIANCE> 13
 2.129229e+01 1.399351e+01 3.731362e+01 6.319203e+01 1.063428e+02 2.705156e+01 2.593071e+01 1.938007e+01 1.010233e+01 1.412058e+01 3.143882e+00 2.272423e-01 4.635793e-02
<GCONST> 5.309172e+01
<STATE> 5
<NUMMIXES> 5
<MIXTURE> 1 1.657653e-01
<MEAN> 13
 -4.625189e-01 3.798675e+00 1.954428e+00 9.083779e+00 3.188671e-01 6.970259e+00 8.204297e-01 4.835155e+00 4.452147e+00 1.774764e+00 1.266383e+00 -2.503568e-01 3.289211e-04
<VARIANCE> 13
 4.224722e+00 3.912862e+00 7.461908e+00 9.219387e+00 1.487819e+01 1.115477e+01 8.367949e+00 5.092165e+00 3.821989e+00 3.011220e+00 7.250567e-01 9.629918e-02 3.566701e-05
<GCONST> 2.933265e+01
<MIXTURE> 2 2.269464e-01
<MEAN> 13
 -4.606111e+00 -4.580728e+00 -5.015008e+00 6.642125e+00 -2.068074e+01 3.270149e+00 -4.836938e+00 1.724352e+00 2.598899e+00 -4.432154e+00 4.137784e-01 -3.363599e-01 3.365186e-03
<VARIANCE> 13
 7.919953e+00 7.231032e+00 1.584252e+01 2.878533e+01 5.760932e+01 3.624299e+01 1.876601e+01 1.737008e+01 1.072399e+01 5.097936e+00 2.382015e+00 1.661019e-01 3.566701e-05
<GCONST> 4.032629e+01
<MIXTURE> 3 3.091043e-01
<MEAN> 13
 -1.132310e+00 -6.263792e+00 -1.154198e+01 9.598066e+00 -1.802757e+01 -1.936493e-01 -7.746398e+00 1.113835e+00 4.622016e-02 1.336444e-01 -1.049851e+00 -9.066585e-01 5.585771e-03
<VARIANCE> 13
 5.297936e+00 4.316154e+00 7.332485e+00 1.734782e+01 2.135914e+01 2.419747e+01 1.316075e+01 1.271118e+01 7.433281e+00 8.501784e+00 2.701794e+00 1.303911e-01 3.566701e-05
<GCONST> 3.609698e+01
<MIXTURE> 4 2.198055e-01
<MEAN> 13
 -3.607347e+00 -1.127295e+01 -1.612714e+01 8.550011e+00 -2.228478e+01 2.306627e+00 -8.666277e+00 1.740731e+00 1.501978e+00 -1.842623e+00 -3.630986e-01 -5.680572e-01 3.785727e-02
<VARIANCE> 13
 7.077764e+00 6.403003e+00 1.648441e+01 2.645890e+01 3.082965e+01 3.343062e+01 2.161958e+01 1.556636e+01 1.209600e+01 1.451802e+01 2.274472e+00 1.804888e-01 8.547865e-04
<GCONST> 4.375407e+01
<MIXTURE> 5 7.837849e-02
<MEAN> 13
 -7.796313e+00 -1.350186e+01 -1.622768e+01 7.297385e+00 -2.048418e+01 -9.058281e-01 -9.873756e+00 3.029586e-01 2.643676e+00 -3.881417e-01 -1.003089e+00 -6.997183e-01 5.164570e-01
<VARIANCE> 13
 1.444254e+01 5.987219e+00 1.957802e+01 3.804849e+01 4.146788e+01 4.337858e+01 1.445459e+01 1.503091e+01 1.055841e+01 7.418845e+00 2.541783e+00 9.596767e-02 1.250719e-01
<GCONST> 4.871269e+01
<STATE> 6
<NUMMIXES> 5
<MIXTURE> 1 1.809210e-01
<MEAN> 13
 -1.701021e+00 2.629317e+00 -3.185004e-01 4.042014e+00 -3.552201e+00 2.246017e+00 -3.688424e+00 8.781202e-01 1.821851e+00 -2.407396e-01 7.468781e-01 -3.178971e-01 6.717569e-05
<VARIANCE> 13
 2.380451e+00 2.671529e+00 5.174320e+00 1.010589e+01 1.153605e+01 8.060726e+00 8.285500e+00 5.595950e+00 3.838357e+00 2.788078e+00 9.010046e-01 1.297726e-01 3.566701e-05
<GCONST> 2.805109e+01
<MIXTURE> 2 1.604122e-01
<MEAN> 13
 -2.299706e+00 1.431835e+00 -1.893732e+00 2.623351e+00 -6.240567e+00 -4.423466e-01 -7.283710e+00 -2.500784e+00 -6.919088e-01 -1.893459e+00 -1.498574e-01 -6.022895e-01 1.078726e-04
<VARIANCE> 13
 3.624500e+00 3.146433e+00 5.473353e+00 9.617114e+00 1.439352e+01 7.013359e+00 6.358970e+00 3.970231e+00 3.951660e+00 2.682137e+00 8.758581e-01 1.555239e-01 3.566701e-05
<GCONST> 2.825906e+01
<MIXTURE> 3 3.196926e-01
<MEAN> 13
 -1.749238e+00 -1.248592e+00 -5.735324e+00 4.546986e+00 -8.672502e+00 1.715461e+00 -4.645648e+00 1.882337e+00 1.749323e+00 2.860326e-01 1.844359e-01 -5.284993e-01 3.383225e-04
<VARIANCE> 13
 3.418677e+00 3.085426e+00 6.509879e+00 1.773969e+01 1.873348e+01 1.414203e+01 9.250321e+00 6.778614e+00 5.272176e+00 4.195365e+00 1.129778e+00 1.735637e-01 3.566701e-05
<GCONST> 3.194132e+01
<MIXTURE> 4 1.762870e-01
<MEAN> 13
 -1.841890e+00 -2.236728e+00 -8.227206e+00 2.073453e+00 -1.223339e+01 -1.183009e+00 -1.027778e+01 -1.928408e+00 1.548006e-01 -1.645873e+00 -5.337101e-01 -6.443829e-01 8.954909e-04
<VARIANCE> 13
 6.620106e+00 4.699884e+00 1.014211e+01 1.476226e+01 1.795192e+01 1.214823e+01 1.326912e+01 7.979226e+00 8.882652e+00 4.867620e+00 1.571713e+00 2.012773e-01 3.566701e-05
<GCONST> 3.476050e+01
<MIXTURE> 5 1.626873e-01
<MEAN> 13
 -3.643297e+00 -7.705379e+00 -1.322678e+01 4.383516e+00 -1.177505e+01 4.727108e+00 -6.159797e+00 1.525374e+00 1.060156e+00 -1.215050e+00 -5.997560e-02 -3.593252e-01 1.935368e-03
<VARIANCE> 13
 8.693639e+00 6.465151e+00 1.237881e+01 1.682399e+01 2.735418e+01 2.127691e+01 1.461539e+01 8.687100e+00 8.230029e+00 5.605685e+00 1.083486e+00 1.492134e-01 3.566701e-05
<GCONST> 3.623871e+01
<STATE> 7
<NUMMIXES> 5
<MIXTURE> 1 1.673472e-01
<MEAN> 13
 -4.264611e+00 2.620845e+00 2.757955e+00 4.725272e+00 2.189166e+00 6.210800e+00 1.695688e+00 2.798213e+00 3.221995e+00 1.274110e-01 1.571587e+00 -1.776118e-01 2.372883e-05
<VARIANCE> 13
 2.439948e+00 2.189366e+00 3.788621e+00 7.076684e+00 6.621589e+00 6.459912e+00 4.849049e+00 3.541949e+00 2.210031e+00 1.336484e+00 4.771975e-01 5.368840e-02 3.566701e-05
<GCONST> 2.263359e+01
<MIXTURE> 2 2.089966e-01
<MEAN> 13
 -5.449134e+00 -4.898526e-01 -1.452910e+00 2.680133e+00 3.092599e-01 5.063475e+00 1.740650e-01 2.235151e+00 2.589684e+00 1.495050e-01 1.399357e+00 -2.087664e-01 2.228292e-05
<VARIANCE> 13
 2.030547e+00 1.457143e+00 3.123354e+00 5.610277e+00 5.869538e+00 4.868160e+00 3.751291e+00 2.632483e+00 1.930869e+00 1.276488e+00 4.689350e-01 5.762836e-02 3.566701e-05
<GCONST> 2.053298e+01
<MIXTURE> 3 2.333372e-01
<MEAN> 13
 -5.155405e+00 7.827241e-01 -5.953862e-02 1.842542e+00 -1.016053e+00 2.682501e+00 -2.079045e+00 -3.483129e-01 9.389726e-01 -9.593017e-01 1.052224e+00 -2.963604e-01 2.457367e-05
<VARIANCE> 13
 2.339448e+00 1.928005e+00 3.611394e+00 6.153121e+00 6.300412e+00 5.382509e+00 4.033092e+00 2.440405e+00 1.936952e+00 1.326038e+00 5.186383e-01 7.889837e-02 3.566701e-05
<GCONST> 2.181620e+01
<MIXTURE> 4 2.197380e-01
<MEAN> 13
 -6.321362e+00 -2.607463e+00 -4.265568e+00 1.149735e+00 -2.268275e+00 3.156670e+00 -2.259645e+00 8.754593e-01 1.628413e+00 -2.960531e-01 1.086288e+00 -2.807596e-01 4.899989e-05
<VARIANCE> 13
 4.251843e+00 2.657912e+00 5.490798e+00 1.013114e+01 8.163639e+00 6.894824e+00 5.100447e+00 3.500264e+00 2.532028e+00 1.750443e+00 6.100693e-01 7.620787e-02 3.566701e-05
<GCONST> 2.542775e+01
<MIXTURE> 5 1.705809e-01
<MEAN> 13
 -6.028334e+00 -1.967714e+00 -4.045830e+00 -3.657895e-01 -3.978050e+00 6.451213e-01 -4.833133e+00 -1.939750e+00 -4.743702e-01 -1.718305e+00 4.766492e-01 -4.479283e-01 3.858971e-05
<VARIANCE> 13
 3.277714e+00 3.337793e+00 6.690639e+00 7.482934e+00 8.261366e+00 7.063121e+00 4.640298e+00 2.921350e+00 2.215061e+00 1.601766e+00 5.476611e-01 7.632315e-02 3.566701e-05
<GCONST> 2.472172e+01
<TRANSP> 8
 0.000000e+00 1.000000e+00 0.000000e+00 0.000000e+00 0.000000e+00 0.000000e+00 0.000000e+00 0.000000e+00
 0.000000e+00 9.368027e-01 5.064400e-02 1.255329e-02 0.000000e+00 0.000000e+00 0.000000e+00 0.000000e+00
 0.000000e+00 0.000000e+00 9.388470e-01 4.150066e-02 1.965236e-02 0.000000e+00 0.000000e+00 0.000000e+00
 0.000000e+00 0.000000e+00 0.000000e+00 9.618602e-01 2.121197e-02 1.692781e-02 0.000000e+00 0.000000e+00
 0.000000e+00 0.000000e+00 0.000000e+00 0.000000e+00 9.228759e-01 6.166233e-02 1.546180e-02 0.000000e+00
 0.000000e+00 0.000000e+00 0.000000e+00 0.000000e+00 0.000000e+00 9.387423e-01 5.757965e-02 3.678093e-03
 0.000000e+00 0.000000e+00 0.000000e+00 0.000000e+00 0.000000e+00 0.000000e+00 9.485071e-01 5.149291e-02
 0.000000e+00 0.000000e+00 0.000000e+00 0.000000e+00 0.000000e+00 0.000000e+00 0.000000e+00 0.000000e+00
<ENDHMM>
