~o
<STREAMINFO> 1 13
<VECSIZE> 13<NULLD><MFCC_E><DIAGC>
~h "tiantianmfcce"
<BEGINHMM>
<NUMSTATES> 8
<STATE> 2
<NUMMIXES> 10
<MIXTURE> 1 3.086742e-02
<MEAN> 13
 4.241240e+00 1.898425e+01 1.893820e+01 1.390878e+01 1.927739e+01 1.285416e+01 1.294566e+01 9.279371e+00 5.999308e+00 3.210510e+00 1.326404e+00 3.172629e-01 3.590570e-04
<VARIANCE> 13
 4.575562e-01 8.376051e-01 5.665507e-01 1.433571e+00 1.638193e+00 7.936575e-01 3.733118e-01 5.858687e-01 2.997838e-01 1.970481e-01 5.579891e-02 1.054449e-02 3.566701e-05
<GCONST> 9.593658e-01
<MIXTURE> 2 1.219640e-01
<MEAN> 13
 5.318558e-01 1.000085e+01 1.194527e+01 1.544981e+01 1.392484e+01 1.617855e+01 1.015365e+01 8.477163e+00 6.441287e+00 2.392423e+00 2.082119e+00 -5.532568e-02 8.212264e-03
<VARIANCE> 13
 1.819465e+00 3.012152e+00 7.322782e+00 5.997576e+00 9.479311e+00 4.616590e+00 4.990918e+00 3.396483e+00 1.954528e+00 1.161621e+00 3.975995e-01 4.756033e-02 3.566701e-05
<GCONST> 2.259569e+01
<MIXTURE> 3 1.424918e-01
<MEAN> 13
 -1.692710e+00 5.809202e+00 6.492209e+00 1.031756e+01 8.162082e+00 1.114783e+01 5.793643e+00 5.717390e+00 4.732782e+00 1.621627e+00 1.850092e+00 -1.347992e-02 8.776253e-04
<VARIANCE> 13
 1.982002e+00 2.305778e+00 3.882335e+00 5.689746e+00 5.771241e+00 6.371115e+00 3.625835e+00 2.509622e+00 2.015874e+00 1.186440e+00 5.042592e-01 5.530817e-02 3.566701e-05
<GCONST> 2.137114e+01
<MIXTURE> 4 9.303030e-02
<MEAN> 13
 2.528751e+00 1.143692e+01 1.264574e+01 1.555200e+01 5.430462e+00 1.004578e+01 5.270088e+00 6.335975e+00 4.855300e+00 1.728737e+00 1.902818e+00 6.713485e-02 8.219369e-03
<VARIANCE> 13
 3.216606e+00 3.126813e+00 6.905610e+00 8.737428e+00 2.172537e+01 6.105538e+00 4.326905e+00 4.442290e+00 3.058781e+00 2.468441e+00 5.533605e-01 6.001664e-02 3.566701e-05
<GCONST> 2.651983e+01
<MIXTURE> 5 1.124338e-01
<MEAN> 13
 -4.140886e+00 2.276462e+00 2.401270e+00 6.184978e+00 4.439546e+00 8.392051e+00 2.893913e+00 3.713079e+00 3.651432e+00 7.032533e-01 1.820582e+00 -9.166805e-02 3.531640e-05
<VARIANCE> 13
 2.291718e+00 2.439497e+00 4.272858e+00 6.607671e+00 6.645793e+00 5.722165e+00 4.262959e+00 3.163006e+00 2.168187e+00 1.331512e+00 4.019646e-01 5.154742e-02 3.566701e-05
<GCONST> 2.213611e+01
<MIXTURE> 6 1.524410e-01
<MEAN> 13
 2.049572e+00 7.328355e+00 8.446026e+00 1.810776e+01 -4.529048e+00 7.462008e+00 2.851191e+00 8.380857e+00 5.757876e+00 1.353633e+00 1.590766e+00 8.486031e-02 7.383071e-03
<VARIANCE> 13
 4.799603e+00 4.339532e+00 1.006062e+01 1.961895e+01 4.923267e+01 1.669524e+01 1.174966e+01 8.299293e+00 6.849515e+00 6.337753e+00 1.064742e+00 1.338251e-01 3.566701e-05
<GCONST> 3.508643e+01
<MIXTURE> 7 1.116124e-01
<MEAN> 13
 -4.499233e+00 7.316430e+00 1.474152e+01 1.783483e+01 5.623167e+00 1.452696e+01 9.764066e+00 7.703173e+00 6.422556e+00 1.252768e+00 2.799031e+00 -1.139405e-01 6.907434e-03
<VARIANCE> 13
 7.236485e+00 5.718612e+00 9.608033e+00 1.861469e+01 2.003093e+01 1.427846e+01 8.704926e+00 9.983917e+00 5.734486e+00 2.111180e+00 9.090677e-01 8.888743e-02 3.566701e-05
<GCONST> 3.265945e+01
<MIXTURE> 8 4.153059e-02
<MEAN> 13
 2.604033e+00 3.165268e+00 2.568796e+00 2.133421e+01 -7.122003e+00 6.459481e+00 4.224234e-02 6.162765e+00 4.920572e+00 4.650796e+00 1.204049e+00 -3.830967e-01 1.042917e-02
<VARIANCE> 13
 3.466695e+00 3.744694e+00 1.294821e+01 2.674191e+01 2.688848e+01 1.222971e+01 9.822070e+00 9.523266e+00 5.076421e+00 3.805890e+00 1.257298e+00 9.713808e-02 5.623354e-05
<GCONST> 3.370957e+01
<MIXTURE> 9 8.974618e-02
<MEAN> 13
 -5.832871e+00 -3.330257e-01 -9.667215e-01 2.158708e+00 -1.984373e-01 4.820676e+00 -3.325580e-01 1.000400e+00 1.826226e+00 -4.626452e-01 1.393616e+00 -1.968383e-01 4.097566e-05
<VARIANCE> 13
 3.036512e+00 4.403112e+00 7.453662e+00 9.729751e+00 8.861713e+00 8.425373e+00 6.049147e+00 3.826236e+00 2.727814e+00 1.598403e+00 5.511539e-01 7.881135e-02 3.566701e-05
<GCONST> 2.631889e+01
<MIXTURE> 10 1.038826e-01
<MEAN> 13
 3.104631e+00 1.132475e+01 1.049840e+01 1.315890e+01 -1.176847e+00 6.052410e+00 7.021741e-01 4.256001e+00 3.195462e+00 6.001166e-01 1.668437e+00 9.821178e-02 4.486850e-03
<VARIANCE> 13
 7.352674e+00 7.113065e+00 1.103368e+01 1.280083e+01 2.880584e+01 8.137359e+00 7.126866e+00 5.707870e+00 5.243753e+00 3.219643e+00 8.269166e-01 1.027921e-01 3.566701e-05
<GCONST> 3.208254e+01
<STATE> 3
<NUMMIXES> 10
<MIXTURE> 1 1.380590e-01
<MEAN> 13
 -2.351172e+00 5.888882e+00 8.723015e+00 1.078049e+01 -7.074015e+00 3.475006e+00 -9.044651e-01 1.753876e+00 2.596791e+00 -8.106619e-01 2.051617e+00 -9.605234e-02 7.416041e-04
<VARIANCE> 13
 4.687631e+00 4.306535e+00 7.574704e+00 1.868462e+01 4.719185e+01 1.120788e+01 7.550036e+00 6.750753e+00 5.475132e+00 3.290163e+00 8.646322e-01 9.008401e-02 3.566701e-05
<GCONST> 3.214943e+01
<MIXTURE> 2 1.610660e-01
<MEAN> 13
 -7.818961e+00 2.256084e+00 8.739818e+00 1.157288e+01 -3.656988e-01 9.380639e+00 5.078179e+00 4.789031e+00 4.729097e+00 1.143947e-01 2.741897e+00 -1.368885e-01 7.802422e-04
<VARIANCE> 13
 1.000556e+01 6.056337e+00 1.204706e+01 2.882873e+01 1.977055e+01 1.247639e+01 6.708323e+00 8.885440e+00 5.677440e+00 2.432208e+00 9.276273e-01 9.832250e-02 3.566701e-05
<GCONST> 3.343202e+01
<MIXTURE> 3 7.971494e-02
<MEAN> 13
 2.368781e+00 8.994603e+00 5.618948e+00 8.426592e+00 -5.392769e+00 1.201861e+00 -3.757759e+00 1.587350e+00 8.467279e-01 -5.331489e-02 1.203484e+00 5.644211e-03 5.661685e-04
<VARIANCE> 13
 3.521719e+00 3.968322e+00 5.002166e+00 9.147945e+00 2.151450e+01 1.083218e+01 8.745465e+00 7.368209e+00 5.210148e+00 2.540755e+00 6.093937e-01 7.024030e-02 3.566701e-05
<GCONST> 2.916071e+01
<MIXTURE> 4 9.504059e-02
<MEAN> 13
 1.057728e+00 5.957722e+00 3.410049e+00 9.760367e+00 -1.043111e+01 -8.951294e-01 -6.768091e+00 1.938734e+00 2.813052e+00 3.465354e-01 1.589337e+00 1.541720e-01 1.361155e-03
<VARIANCE> 13
 8.177856e+00 6.033266e+00 1.120227e+01 2.171225e+01 3.107265e+01 1.390342e+01 6.757608e+00 7.687609e+00 9.138526e+00 5.949421e+00 1.836491e+00 2.079608e-01 3.566701e-05
<GCONST> 3.609582e+01
<MIXTURE> 5 1.467979e-01
<MEAN> 13
 1.730245e+00 4.641456e+00 2.925831e+00 1.361255e+01 -8.059856e+00 2.860425e+00 -1.067767e+00 6.506695e+00 4.154334e+00 1.250400e+00 9.044172e-01 -5.417937e-02 1.507027e-03
<VARIANCE> 13
 3.610878e+00 2.608243e+00 6.256595e+00 1.655204e+01 3.238284e+01 1.646822e+01 1.025534e+01 7.441288e+00 7.320090e+00 4.679946e+00 9.753591e-01 1.253728e-01 3.566701e-05
<GCONST> 3.258029e+01
<MIXTURE> 6 7.334761e-02
<MEAN> 13
 7.820034e-01 4.508829e-01 -3.843583e+00 8.990796e+00 -1.620970e+01 6.749240e-01 -4.567708e+00 6.360444e+00 4.410862e+00 -1.132685e+00 4.129056e-01 7.249687e-02 2.235316e-03
<VARIANCE> 13
 2.844560e+00 3.734220e+00 8.960462e+00 2.173767e+01 2.313525e+01 1.706421e+01 1.248157e+01 5.018389e+00 7.659219e+00 6.047596e+00 1.249697e+00 7.840060e-02 3.566701e-05
<GCONST> 3.291418e+01
<MIXTURE> 7 4.648991e-02
<MEAN> 13
 1.068927e-01 -3.879869e+00 -5.268430e+00 1.929910e+01 -1.674636e+01 4.171372e+00 -2.490516e+00 7.442587e+00 5.737639e+00 2.928854e+00 1.570600e-01 -3.375438e-01 2.916654e-02
<VARIANCE> 13
 8.941730e+00 7.937420e+00 1.710903e+01 1.605506e+01 3.812665e+01 2.326416e+01 1.753544e+01 9.557990e+00 9.100550e+00 6.164677e+00 1.536919e+00 1.225442e-01 4.614551e-04
<GCONST> 4.035632e+01
<MIXTURE> 8 2.209960e-02
<MEAN> 13
 -2.288409e+00 -5.204466e+00 -5.834924e+00 1.247257e+01 -1.820327e+01 6.707639e+00 -2.369741e+00 1.682470e+00 3.544703e-01 -4.143734e+00 -1.485251e+00 -6.945013e-01 2.281822e-03
<VARIANCE> 13
 3.687866e+00 2.867920e+00 8.159005e+00 1.270138e+01 2.800656e+01 2.220700e+01 1.048142e+01 5.981009e+00 5.958379e+00 3.064460e+00 2.219823e+00 1.506050e-01 3.566701e-05
<GCONST> 3.303063e+01
<MIXTURE> 9 1.257811e-01
<MEAN> 13
 3.552695e-01 -6.030324e-01 -2.806628e+00 1.452204e+01 -1.325209e+01 1.103375e+00 -4.902113e+00 3.378876e+00 3.100766e+00 2.552126e+00 3.443752e-01 -4.313209e-01 3.445495e-03
<VARIANCE> 13
 6.426258e+00 4.715194e+00 9.121086e+00 1.665735e+01 2.552800e+01 1.771019e+01 1.078456e+01 1.390250e+01 8.133424e+00 2.870404e+00 1.139703e+00 1.227274e-01 3.566701e-05
<GCONST> 3.439326e+01
<MIXTURE> 10 1.116032e-01
<MEAN> 13
 -2.305703e+00 8.884372e-01 3.407751e+00 1.464941e+01 -1.536506e+01 3.432865e+00 -1.414050e+00 4.578227e+00 3.659782e+00 -1.080860e+00 1.349797e+00 -1.457124e-01 2.325376e-03
<VARIANCE> 13
 3.693650e+00 3.211278e+00 6.905804e+00 2.166150e+01 3.700195e+01 2.325373e+01 1.030955e+01 1.263152e+01 1.034097e+01 6.130208e+00 1.190680e+00 1.022037e-01 3.566701e-05
<GCONST> 3.480209e+01
<STATE> 4
<NUMMIXES> 10
<MIXTURE> 1 7.941463e-02
<MEAN> 13
 -2.244568e+00 3.278774e+00 2.081273e+00 4.849801e+00 -6.126065e+00 1.983621e-01 -5.004702e+00 -1.073775e+00 2.481041e-01 -1.498550e+00 9.201904e-01 -2.709048e-01 1.137923e-04
<VARIANCE> 13
 2.681710e+00 3.048479e+00 4.665835e+00 9.841966e+00 1.769132e+01 7.033850e+00 7.724365e+00 4.086940e+00 3.509098e+00 2.505629e+00 9.537374e-01 1.285383e-01 3.566701e-05
<GCONST> 2.793013e+01
<MIXTURE> 2 1.246081e-01
<MEAN> 13
 -1.063973e+01 -1.978079e+00 3.243028e+00 5.514764e+00 -6.193463e+00 3.103372e+00 2.227394e-01 1.668934e+00 2.219845e+00 -1.356997e+00 2.154423e+00 -2.087618e-01 7.860368e-04
<VARIANCE> 13
 1.108715e+01 6.022275e+00 1.302435e+01 2.493153e+01 2.036092e+01 1.384719e+01 7.603944e+00 8.403408e+00 6.023887e+00 2.665947e+00 9.808654e-01 1.075750e-01 3.566701e-05
<GCONST> 3.396173e+01
<MIXTURE> 3 1.443159e-01
<MEAN> 13
 -6.472214e+00 1.473881e+00 4.802370e+00 6.025741e+00 -1.267306e+01 -1.913851e+00 -5.179388e+00 -1.989809e+00 -4.135764e-01 -2.869251e+00 1.343237e+00 -4.094599e-01 7.457988e-04
<VARIANCE> 13
 7.376358e+00 5.212841e+00 8.234203e+00 2.535952e+01 3.425548e+01 1.393209e+01 7.184506e+00 6.703068e+00 6.758979e+00 3.174835e+00 1.253797e+00 1.420286e-01 3.566701e-05
<GCONST> 3.402509e+01
<MIXTURE> 4 1.333894e-01
<MEAN> 13
 -4.222406e+00 -1.664905e+00 -1.958521e+00 5.822641e+00 -1.774172e+01 -2.008204e+00 -5.880648e+00 2.028918e+00 1.778935e+00 -2.536988e+00 1.297047e+00 -1.598801e-01 1.472220e-03
<VARIANCE> 13
 5.477702e+00 4.969054e+00 7.835568e+00 2.075019e+01 5.345881e+01 1.187231e+01 1.035820e+01 8.463324e+00 6.669676e+00 6.050688e+00 1.392553e+00 1.330594e-01 3.566701e-05
<GCONST> 3.498483e+01
<MIXTURE> 5 1.512213e-01
<MEAN> 13
 8.311690e-01 4.528208e+00 -3.672860e-01 5.137575e+00 -1.155435e+01 -3.832463e+00 -9.217880e+00 -9.286116e-01 -1.041833e+00 -1.762088e+00 4.416584e-02 -2.720322e-01 5.550758e-04
<VARIANCE> 13
 3.907422e+00 6.171126e+00 7.598816e+00 1.536253e+01 2.026800e+01 9.032310e+00 8.555146e+00 7.664138e+00 6.345917e+00 3.485449e+00 9.510002e-01 1.593141e-01 3.566701e-05
<GCONST> 3.219603e+01
<MIXTURE> 6 1.627373e-01
<MEAN> 13
 -1.684571e+00 -2.519443e+00 -4.198248e+00 1.194205e+01 -1.984113e+01 -6.113563e+00 -9.696508e+00 1.875934e+00 9.836403e-01 -2.245046e-01 -4.121392e-01 -5.071949e-01 3.587469e-03
<VARIANCE> 13
 6.505354e+00 6.011953e+00 1.243193e+01 1.911781e+01 2.488707e+01 1.234616e+01 9.192352e+00 9.301360e+00 6.674585e+00 4.371461e+00 1.395737e+00 1.524642e-01 3.566701e-05
<GCONST> 3.479061e+01
<MIXTURE> 7 1.856078e-02
<MEAN> 13
 -9.367574e+00 -2.280607e+00 5.085647e-01 5.215812e+00 -1.371721e+01 -4.661660e+00 -6.298038e+00 -9.020712e-01 1.143520e+00 -1.576969e+00 3.142964e-01 -4.042308e-01 4.228944e-02
<VARIANCE> 13
 4.907682e+01 2.230856e+01 5.050059e+01 7.439782e+01 5.739374e+01 8.153368e+01 3.619960e+01 2.549291e+01 1.024353e+01 8.773183e+00 3.277456e+00 1.923311e-01 1.508038e-03
<GCONST> 5.194050e+01
<MIXTURE> 8 1.114938e-01
<MEAN> 13
 -3.343786e+00 1.369202e+00 -1.159541e+00 2.038353e+00 -1.598930e+01 -6.287130e+00 -1.200417e+01 -2.900471e+00 -1.933264e-01 -3.605374e+00 2.459702e-01 -4.690166e-01 1.398466e-03
<VARIANCE> 13
 7.074564e+00 7.672538e+00 1.529796e+01 1.505407e+01 5.064123e+01 1.461941e+01 1.507696e+01 8.720210e+00 1.147117e+01 5.153221e+00 2.288967e+00 2.432297e-01 3.566701e-05
<GCONST> 3.806438e+01
<MIXTURE> 9 3.943551e-02
<MEAN> 13
 -4.904466e+00 -8.436540e+00 -9.183075e+00 1.284232e+01 -2.459968e+01 -6.617631e+00 -1.194310e+01 1.798010e+00 2.637379e+00 1.504609e-04 -7.859138e-01 -5.792590e-01 1.808032e-01
<VARIANCE> 13
 1.073709e+01 6.044819e+00 1.939286e+01 3.907406e+01 4.223083e+01 2.240037e+01 1.772103e+01 1.175993e+01 1.053239e+01 8.675603e+00 2.374318e+00 2.182419e-01 5.711233e-02
<GCONST> 4.788214e+01
<MIXTURE> 10 3.482319e-02
<MEAN> 13
 -5.636583e+00 -7.965692e+00 -8.122468e+00 7.052919e+00 -3.155161e+01 -5.301297e-01 -8.319146e+00 4.675146e+00 4.042888e+00 -5.826628e+00 1.248711e+00 -3.727804e-01 3.718192e-02
<VARIANCE> 13
 5.961884e+00 1.055440e+01 2.119448e+01 2.993952e+01 3.430050e+01 3.153710e+01 1.719211e+01 1.522260e+01 9.019095e+00 3.962410e+00 2.078320e+00 1.620631e-01 1.312524e-03
<GCONST> 4.289299e+01
<STATE> 5
<NUMMIXES> 10
<MIXTURE> 1 1.234097e-01
<MEAN> 13
 -3.018318e-01 4.122027e+00 2.096000e+00 8.767743e+00 6.526140e-01 6.737180e+00 5.035239e-01 4.628916e+00 4.432009e+00 1.731633e+00 1.294226e+00 -2.273893e-01 2.232741e-04
<VARIANCE> 13
 2.652177e+00 2.817128e+00 5.744703e+00 8.047326e+00 1.235254e+01 8.781217e+00 7.254114e+00 5.343965e+00 3.866868e+00 2.759044e+00 6.182669e-01 9.177914e-02 3.566701e-05
<GCONST> 2.733797e+01
<MIXTURE> 2 5.847401e-02
<MEAN> 13
 -2.250277e+00 -2.225632e-01 -1.644022e+00 1.001916e+01 -7.906672e+00 1.172059e+01 1.751537e+00 3.446508e+00 5.294190e+00 -1.333463e+00 2.929489e-01 -3.684300e-01 1.353317e-03
<VARIANCE> 13
 1.435687e+01 4.987709e+00 1.188528e+01 2.331657e+01 2.617751e+01 1.330583e+01 1.058831e+01 5.134795e+01 9.673328e+00 8.521235e+00 1.192365e+00 2.239344e-01 3.566701e-05
<GCONST> 3.878974e+01
<MIXTURE> 3 8.856285e-02
<MEAN> 13
 -4.682338e+00 -4.845309e+00 -5.132710e+00 6.486047e+00 -2.100739e+01 1.300346e+00 -6.175610e+00 1.755323e-02 8.820549e-02 -5.700717e+00 -4.939555e-01 -5.059900e-01 2.321877e-03
<VARIANCE> 13
 5.392204e+00 5.423428e+00 1.013169e+01 2.479949e+01 3.668770e+01 1.668845e+01 1.190820e+01 7.413402e+00 9.006308e+00 4.892550e+00 1.833477e+00 2.204673e-01 3.566701e-05
<GCONST> 3.633081e+01
<MIXTURE> 4 1.050877e-01
<MEAN> 13
 -2.379929e+00 -5.279230e+00 -7.673402e+00 9.073505e+00 -1.625786e+01 7.761903e+00 -3.419475e+00 4.354127e+00 4.666179e+00 -2.747990e+00 1.523620e-01 -3.159155e-01 3.302302e-03
<VARIANCE> 13
 4.200437e+00 5.431556e+00 1.269271e+01 2.588109e+01 2.331161e+01 1.587152e+01 1.231391e+01 1.031693e+01 4.684334e+00 4.421540e+00 2.099359e+00 1.089572e-01 3.566701e-05
<GCONST> 3.488661e+01
<MIXTURE> 5 8.948267e-02
<MEAN> 13
 1.306072e-01 -1.278807e+00 -8.528908e+00 3.348421e+00 -1.334039e+01 8.204094e-01 -1.123331e+01 1.225836e+00 3.931427e+00 -1.981931e+00 -1.441274e-01 -3.411559e-01 1.173169e-03
<VARIANCE> 13
 2.841132e+00 4.727567e+00 1.061094e+01 1.515444e+01 1.605878e+01 1.149225e+01 1.130576e+01 9.043318e+00 4.936486e+00 2.703524e+00 1.400761e+00 1.441293e-01 3.566701e-05
<GCONST> 3.216536e+01
<MIXTURE> 6 4.036048e-02
<MEAN> 13
 -1.355908e+00 -9.937171e+00 -1.695502e+01 1.092487e+01 -1.975893e+01 5.536091e+00 -1.654975e+00 -1.348669e+00 -1.129833e+00 3.398403e+00 -1.578500e+00 -6.525027e-01 4.613635e-02
<VARIANCE> 13
 8.629460e+00 6.007090e+00 4.103697e+00 1.335052e+01 9.466979e+00 2.277439e+01 7.786113e+00 1.151454e+01 7.142134e+00 2.595562e+00 1.261502e+00 9.391656e-02 1.041761e-03
<GCONST> 3.563329e+01
<MIXTURE> 7 1.492877e-01
<MEAN> 13
 -9.590263e-01 -6.278938e+00 -1.099597e+01 1.164373e+01 -2.010566e+01 -2.884362e+00 -8.674676e+00 2.496088e+00 8.987892e-01 1.605414e+00 -3.975698e-01 -9.080144e-01 9.146260e-03
<VARIANCE> 13
 5.414203e+00 4.324668e+00 6.889485e+00 1.656741e+01 2.205319e+01 1.473665e+01 9.196064e+00 1.038971e+01 5.757890e+00 4.118168e+00 2.341880e+00 1.206128e-01 6.687776e-05
<GCONST> 3.441571e+01
<MIXTURE> 8 1.590444e-01
<MEAN> 13
 -2.201905e+00 -7.552353e+00 -1.404229e+01 4.505081e+00 -1.745397e+01 1.120825e+00 -1.034349e+01 7.857697e-01 1.017440e+00 -2.671152e+00 -2.692630e-01 -4.899772e-01 4.081787e-03
<VARIANCE> 13
 3.795131e+00 3.639428e+00 7.927895e+00 1.350003e+01 2.040168e+01 2.074707e+01 1.181685e+01 9.593678e+00 7.973461e+00 4.000365e+00 1.302499e+00 2.051943e-01 3.566701e-05
<GCONST> 3.387139e+01
<MIXTURE> 9 1.197275e-01
<MEAN> 13
 -3.914922e+00 -1.250410e+01 -1.793399e+01 7.455381e+00 -2.081566e+01 3.520401e+00 -9.974690e+00 1.631731e+00 1.182785e+00 -3.050800e+00 -2.769073e-01 -5.341014e-01 2.840642e-02
<VARIANCE> 13
 5.447714e+00 4.280825e+00 1.164954e+01 2.142998e+01 2.352738e+01 3.149028e+01 1.172264e+01 1.051759e+01 1.105084e+01 8.465239e+00 1.600008e+00 1.767703e-01 5.459313e-04
<GCONST> 3.974678e+01
<MIXTURE> 10 6.656297e-02
<MEAN> 13
 -8.080155e+00 -1.405073e+01 -1.674874e+01 6.872636e+00 -2.015866e+01 4.777628e-01 -9.765612e+00 7.905204e-02 2.920578e+00 -6.308539e-01 -8.637517e-01 -7.050464e-01 5.335122e-01
<VARIANCE> 13
 1.293972e+01 4.179749e+00 1.711087e+01 3.976968e+01 3.944809e+01 3.878500e+01 1.496551e+01 1.589648e+01 8.394758e+00 7.505611e+00 2.350948e+00 9.203064e-02 1.310143e-01
<GCONST> 4.779064e+01
<STATE> 6
<NUMMIXES> 10
<MIXTURE> 1 6.774358e-02
<MEAN> 13
 -1.422452e+00 4.299274e+00 1.722482e+00 4.010075e+00 -2.154633e+00 2.297022e+00 -3.404175e+00 5.634306e-02 1.204726e+00 -6.235326e-01 8.116065e-01 -2.314437e-01 4.964624e-05
<VARIANCE> 13
 1.963084e+00 1.545851e+00 3.754925e+00 8.459702e+00 9.931702e+00 7.635810e+00 9.256732e+00 4.926415e+00 3.748619e+00 2.485739e+00 8.099399e-01 1.162151e-01 3.566701e-05
<GCONST> 2.623698e+01
<MIXTURE> 2 1.274879e-01
<MEAN> 13
 -1.644381e+00 1.403750e+00 -1.772541e+00 4.929245e+00 -4.136975e+00 3.338535e+00 -2.867193e+00 2.248841e+00 2.437660e+00 1.761878e-02 5.017065e-01 -4.104516e-01 9.520241e-05
<VARIANCE> 13
 2.225812e+00 1.542641e+00 3.186508e+00 1.006842e+01 1.301506e+01 8.355950e+00 7.613340e+00 5.271417e+00 4.699881e+00 2.900526e+00 9.227292e-01 1.322515e-01 3.566701e-05
<GCONST> 2.724332e+01
<MIXTURE> 3 1.121676e-01
<MEAN> 13
 -1.935972e+00 6.515068e-01 -3.774686e+00 1.820037e+00 -7.368159e+00 -4.407950e-01 -6.590320e+00 -3.198827e-01 1.277153e+00 -8.742686e-02 6.569080e-01 -3.689090e-01 1.103705e-04
<VARIANCE> 13
 2.106788e+00 2.246455e+00 4.385266e+00 1.001293e+01 1.165444e+01 5.213886e+00 4.714104e+00 3.108137e+00 2.756726e+00 2.669550e+00 6.951599e-01 1.292418e-01 3.566701e-05
<GCONST> 2.536563e+01
<MIXTURE> 4 1.059758e-01
<MEAN> 13
 -1.996969e+00 1.906906e+00 -1.563896e+00 2.794291e+00 -6.202810e+00 -3.865559e-01 -7.794924e+00 -3.023642e+00 -1.025362e+00 -2.256188e+00 -3.797515e-01 -6.409444e-01 1.133408e-04
<VARIANCE> 13
 3.833047e+00 2.914560e+00 4.586178e+00 9.892412e+00 1.422253e+01 9.009220e+00 7.698099e+00 4.225084e+00 4.347322e+00 2.546249e+00 8.518734e-01 1.532235e-01 3.566701e-05
<GCONST> 2.858241e+01
<MIXTURE> 5 1.561433e-01
<MEAN> 13
 -8.122963e-01 -1.121369e+00 -5.756491e+00 6.430874e+00 -1.098037e+01 4.197031e-02 -5.824371e+00 6.684737e-01 3.637501e-01 3.841116e-01 -5.066013e-01 -8.135934e-01 6.164554e-04
<VARIANCE> 13
 2.805639e+00 2.796924e+00 6.204406e+00 1.228913e+01 1.776953e+01 1.194455e+01 7.064055e+00 7.362557e+00 4.413787e+00 4.297879e+00 1.110606e+00 1.426483e-01 3.566701e-05
<GCONST> 3.045483e+01
<MIXTURE> 6 1.116294e-01
<MEAN> 13
 -3.049644e+00 -1.698996e+00 -5.802305e+00 2.710443e+00 -5.987887e+00 3.548331e+00 -2.473673e+00 2.765473e+00 2.374098e+00 3.463517e-01 6.169775e-01 -3.739476e-01 1.237370e-04
<VARIANCE> 13
 2.158271e+00 1.599861e+00 3.750546e+00 1.505894e+01 1.644089e+01 1.276241e+01 6.872931e+00 5.182151e+00 4.721550e+00 3.215048e+00 8.945084e-01 1.192995e-01 3.566701e-05
<GCONST> 2.832568e+01
<MIXTURE> 7 1.129127e-01
<MEAN> 13
 -3.142074e+00 -2.360785e+00 -7.269231e+00 1.117254e+00 -1.095533e+01 -1.771600e+00 -9.585838e+00 -2.733015e+00 -6.277328e-01 -1.759544e+00 -3.682048e-01 -6.454343e-01 5.618308e-04
<VARIANCE> 13
 4.063983e+00 3.089290e+00 6.537365e+00 1.419182e+01 2.217562e+01 1.102798e+01 1.016263e+01 5.641714e+00 6.498422e+00 4.502516e+00 1.540969e+00 2.097323e-01 3.566701e-05
<GCONST> 3.250644e+01
<MIXTURE> 8 8.567706e-02
<MEAN> 13
 -3.212930e+00 -4.730305e+00 -1.010056e+01 3.119186e+00 -8.266103e+00 3.727544e+00 -3.778932e+00 2.189105e+00 1.250722e+00 1.528074e-01 4.091041e-02 -4.153328e-01 5.297308e-04
<VARIANCE> 13
 3.635965e+00 1.928184e+00 3.697424e+00 1.604194e+01 1.706963e+01 1.549333e+01 8.628951e+00 6.638804e+00 4.699268e+00 4.272734e+00 9.675582e-01 1.305075e-01 3.566701e-05
<GCONST> 3.023754e+01
<MIXTURE> 9 7.095054e-02
<MEAN> 13
 -8.786150e-01 -5.273115e+00 -1.158052e+01 7.297837e+00 -1.490677e+01 2.308330e+00 -6.755856e+00 -2.041146e+00 -1.986218e+00 -1.945516e-01 -2.124539e+00 -9.801133e-01 2.821184e-03
<VARIANCE> 13
 7.265259e+00 8.011289e+00 6.233249e+00 2.130649e+01 1.160660e+01 2.539704e+01 1.183994e+01 6.788698e+00 4.173427e+00 8.352435e+00 1.755456e+00 1.146754e-01 3.566701e-05
<GCONST> 3.462530e+01
<MIXTURE> 10 4.931200e-02
<MEAN> 13
 -4.297167e+00 -8.672578e+00 -1.417625e+01 4.552685e+00 -1.064541e+01 4.740016e+00 -5.235630e+00 1.361724e+00 6.338629e-01 -4.660257e-02 -1.460720e-01 -3.890099e-01 1.681448e-03
<VARIANCE> 13
 5.890022e+00 2.688123e+00 6.997451e+00 1.669205e+01 1.491096e+01 2.352041e+01 8.608387e+00 8.886460e+00 7.374062e+00 4.614571e+00 9.878431e-01 1.204439e-01 3.566701e-05
<GCONST> 3.276932e+01
<STATE> 7
<NUMMIXES> 10
<MIXTURE> 1 8.767714e-02
<MEAN> 13
 -4.082948e+00 2.831060e+00 3.208843e+00 5.687352e+00 3.224695e+00 7.562045e+00 2.776547e+00 3.670682e+00 3.777212e+00 3.529647e-01 1.627598e+00 -1.739806e-01 2.903875e-05
<VARIANCE> 13
 2.528783e+00 2.875371e+00 4.615896e+00 6.608809e+00 5.903878e+00 5.269535e+00 4.132064e+00 3.237964e+00 2.050913e+00 1.394683e+00 5.232726e-01 5.481371e-02 3.566701e-05
<GCONST> 2.258371e+01
<MIXTURE> 2 1.355313e-01
<MEAN> 13
 -4.604648e+00 2.027243e+00 1.714722e+00 3.206546e+00 7.539216e-01 4.501210e+00 3.123517e-01 1.649323e+00 2.425254e+00 -1.925022e-01 1.450098e+00 -1.979712e-01 1.601117e-05
<VARIANCE> 13
 1.610934e+00 1.178000e+00 2.440007e+00 5.454929e+00 5.355133e+00 3.982648e+00 3.049610e+00 2.279248e+00 1.561505e+00 1.151159e+00 3.958694e-01 5.186037e-02 3.566701e-05
<GCONST> 1.857968e+01
<MIXTURE> 3 6.502024e-02
<MEAN> 13
 -4.313948e+00 2.168890e+00 1.292368e+00 2.343021e+00 -1.114771e+00 2.023387e+00 -2.833460e+00 -1.270131e+00 1.736075e-01 -1.479788e+00 7.547511e-01 -3.759394e-01 2.324975e-05
<VARIANCE> 13
 1.754548e+00 1.084363e+00 2.285351e+00 7.108913e+00 7.442239e+00 5.788349e+00 4.443769e+00 2.646669e+00 1.878375e+00 1.355821e+00 5.300968e-01 8.709704e-02 3.566701e-05
<GCONST> 2.116939e+01
<MIXTURE> 4 1.412704e-01
<MEAN> 13
 -5.589145e+00 -8.965648e-01 -1.915330e+00 2.751036e+00 4.096846e-01 5.436383e+00 4.424390e-01 2.623657e+00 2.849272e+00 3.513205e-01 1.453800e+00 -1.988157e-01 2.385106e-05
<VARIANCE> 13
 2.024579e+00 1.380202e+00 3.214143e+00 6.108929e+00 6.009524e+00 4.672285e+00 3.582265e+00 2.565807e+00 1.817556e+00 1.215924e+00 4.719961e-01 5.763665e-02 3.566701e-05
<GCONST> 2.039790e+01
<MIXTURE> 5 1.212864e-01
<MEAN> 13
 -6.236447e+00 -5.724936e-01 -1.059891e+00 1.623863e+00 -1.582490e-01 3.995020e+00 -8.186986e-01 9.971523e-02 7.839820e-01 -1.209247e+00 9.465257e-01 -3.277968e-01 2.399648e-05
<VARIANCE> 13
 2.022447e+00 1.072271e+00 2.263827e+00 6.182392e+00 5.136511e+00 4.289597e+00 2.981651e+00 2.243845e+00 1.417459e+00 9.627678e-01 4.662000e-01 7.169792e-02 3.566701e-05
<GCONST> 1.896969e+01
<MIXTURE> 6 9.495258e-02
<MEAN> 13
 -4.677394e+00 1.823078e-01 -1.553356e+00 1.537190e+00 -2.418138e+00 1.694682e+00 -3.202134e+00 4.188664e-01 2.140867e+00 1.696991e-01 1.421275e+00 -1.993443e-01 2.501423e-05
<VARIANCE> 13
 1.547580e+00 1.329334e+00 2.695523e+00 6.159958e+00 5.715768e+00 4.410835e+00 2.867504e+00 2.290568e+00 1.537365e+00 1.079889e+00 4.818881e-01 6.995204e-02 3.566701e-05
<GCONST> 1.940862e+01
<MIXTURE> 7 9.850823e-02
<MEAN> 13
 -5.527210e+00 -5.792730e-01 -2.192772e+00 3.880446e-01 -3.225581e+00 5.681522e-01 -4.543274e+00 -2.011243e+00 -5.356307e-01 -1.903068e+00 4.691392e-01 -4.592750e-01 3.390166e-05
<VARIANCE> 13
 2.430380e+00 1.466727e+00 2.966299e+00 6.878287e+00 6.776247e+00 6.296928e+00 4.270794e+00 2.846138e+00 2.125551e+00 1.437520e+00 5.349704e-01 7.190900e-02 3.566701e-05
<GCONST> 2.204818e+01
<MIXTURE> 8 6.079843e-02
<MEAN> 13
 -8.607114e+00 -3.304342e+00 -2.176312e+00 3.273657e+00 -3.009248e+00 3.321765e+00 -2.061919e+00 9.780989e-01 1.987381e+00 -1.064727e+00 1.239312e+00 -2.630444e-01 4.148961e-04
<VARIANCE> 13
 9.817842e+00 1.241552e+01 1.962216e+01 2.909052e+01 2.136530e+01 1.678975e+01 1.034722e+01 7.576011e+00 6.162055e+00 3.507663e+00 1.320860e+00 1.608434e-01 3.566701e-05
<GCONST> 3.656990e+01
<MIXTURE> 9 1.289319e-01
<MEAN> 13
 -6.254854e+00 -2.752876e+00 -4.609517e+00 9.683357e-01 -1.894070e+00 2.991542e+00 -2.724363e+00 2.914695e-01 1.159292e+00 -4.329383e-01 9.876547e-01 -2.924179e-01 2.203394e-05
<VARIANCE> 13
 1.682818e+00 1.040500e+00 2.333140e+00 5.242410e+00 5.335186e+00 4.343596e+00 3.304347e+00 2.525394e+00 1.727010e+00 1.098924e+00 4.501140e-01 6.632192e-02 3.566701e-05
<GCONST> 1.910918e+01
<MIXTURE> 10 6.602339e-02
<MEAN> 13
 -6.569517e+00 -3.406552e+00 -6.023032e+00 -1.436663e+00 -5.001335e+00 2.688191e-01 -5.184255e+00 -1.805493e+00 -4.326591e-01 -1.504360e+00 5.089156e-01 -4.338142e-01 3.864494e-05
<VARIANCE> 13
 2.792014e+00 1.835025e+00 4.111718e+00 7.076774e+00 7.174183e+00 6.412621e+00 4.455001e+00 3.108447e+00 2.558160e+00 1.677340e+00 5.692812e-01 8.310577e-02 3.566701e-05
<GCONST> 2.351798e+01
<TRANSP> 8
 0.000000e+00 1.000000e+00 0.000000e+00 0.000000e+00 0.000000e+00 0.000000e+00 0.000000e+00 0.000000e+00
 0.000000e+00 9.443756e-01 4.425244e-02 1.137200e-02 0.000000e+00 0.000000e+00 0.000000e+00 0.000000e+00
 0.000000e+00 0.000000e+00 9.357989e-01 3.842114e-02 2.578000e-02 0.000000e+00 0.000000e+00 0.000000e+00
 0.000000e+00 0.000000e+00 0.000000e+00 9.625512e-01 2.320132e-02 1.424745e-02 0.000000e+00 0.000000e+00
 0.000000e+00 0.000000e+00 0.000000e+00 0.000000e+00 9.190953e-01 6.610573e-02 1.479903e-02 0.000000e+00
 0.000000e+00 0.000000e+00 0.000000e+00 0.000000e+00 0.000000e+00 9.353656e-01 6.099801e-02 3.636334e-03
 0.000000e+00 0.000000e+00 0.000000e+00 0.000000e+00 0.000000e+00 0.000000e+00 9.487214e-01 5.127862e-02
 0.000000e+00 0.000000e+00 0.000000e+00 0.000000e+00 0.000000e+00 0.000000e+00 0.000000e+00 0.000000e+00
<ENDHMM>
