~o
<STREAMINFO> 1 13
<VECSIZE> 13<NULLD><LPCEPSTRA_E><DIAGC>
~h "tiantianCUT_12_5_lpcce_norm"
<BEGINHMM>
<NUMSTATES> 12
<STATE> 2
<NUMMIXES> 5
<MIXTURE> 1 3.331718e-01
<MEAN> 13
 4.397404e-01 4.005605e-01 4.145307e-01 4.970393e-01 3.166341e-01 2.750785e-01 3.928076e-01 4.596031e-01 4.228541e-01 5.614659e-01 3.772594e-01 5.110828e-01 6.174357e-05
<VARIANCE> 13
 2.781613e-03 1.973051e-03 3.077138e-03 5.801783e-03 4.994997e-03 4.332692e-03 4.764624e-03 8.172585e-03 5.467601e-03 4.005583e-03 5.441143e-03 6.748027e-03 5.763423e-05
<GCONST> -5.075088e+01
<MIXTURE> 2 2.449489e-01
<MEAN> 13
 3.473220e-01 4.137051e-01 4.754343e-01 6.005710e-01 4.682146e-01 5.223714e-01 7.883410e-01 7.232359e-01 4.154901e-01 7.081491e-01 5.163885e-01 5.439380e-01 1.260562e-03
<VARIANCE> 13
 6.046566e-03 5.715185e-03 8.510449e-03 8.158331e-03 6.610177e-03 6.085007e-03 5.769781e-03 6.570322e-03 8.572314e-03 4.284278e-03 5.089064e-03 8.857668e-03 5.763423e-05
<GCONST> -4.623760e+01
<MIXTURE> 3 2.307532e-01
<MEAN> 13
 5.368902e-01 4.923481e-01 4.265304e-01 5.272599e-01 4.166189e-01 3.515705e-01 4.578065e-01 5.126472e-01 4.434263e-01 6.357890e-01 3.772467e-01 5.398304e-01 7.040129e-04
<VARIANCE> 13
 7.697089e-03 4.864210e-03 8.179745e-03 1.115078e-02 8.858692e-03 9.617330e-03 7.799341e-03 1.346401e-02 1.053957e-02 6.858395e-03 9.043563e-03 1.070564e-02 5.763423e-05
<GCONST> -4.267368e+01
<MIXTURE> 4 6.567927e-02
<MEAN> 13
 4.198234e-01 2.203068e-01 3.137941e-01 5.261444e-01 9.643242e-02 3.967192e-01 1.704353e-01 3.766680e-01 4.020557e-01 3.537920e-01 4.586889e-01 2.300550e-01 1.169571e-02
<VARIANCE> 13
 5.873084e-03 3.010630e-03 1.236239e-03 1.206014e-03 1.027037e-03 1.395544e-03 5.130019e-04 1.450241e-03 1.212185e-03 9.618744e-04 2.928425e-03 1.138587e-03 1.219232e-04
<GCONST> -6.331883e+01
<MIXTURE> 5 1.254469e-01
<MEAN> 13
 4.589394e-01 3.308007e-01 3.447976e-01 4.763657e-01 2.070168e-01 3.774296e-01 2.624010e-01 4.103898e-01 3.946386e-01 4.325033e-01 4.219374e-01 3.333473e-01 3.167195e-03
<VARIANCE> 13
 1.242666e-02 4.312879e-03 6.548389e-03 9.332080e-03 5.957397e-03 1.248482e-02 5.319453e-03 7.346713e-03 7.416861e-03 5.427901e-03 1.269773e-02 6.520216e-03 5.763423e-05
<GCONST> -4.458152e+01
<STATE> 3
<NUMMIXES> 5
<MIXTURE> 1 7.379832e-02
<MEAN> 13
 6.454204e-01 5.530242e-01 3.131449e-01 4.822392e-01 5.838357e-01 3.869143e-01 3.942066e-01 5.789371e-01 4.035616e-01 6.577653e-01 3.059693e-01 5.205769e-01 1.079519e-02
<VARIANCE> 13
 1.277142e-02 1.595514e-03 3.469169e-03 1.809521e-02 1.414801e-02 6.749658e-03 7.621727e-03 9.262899e-03 6.794077e-03 5.122795e-03 6.528023e-03 1.693884e-02 2.385713e-04
<GCONST> -4.311599e+01
<MIXTURE> 2 1.309496e-01
<MEAN> 13
 2.784386e-01 2.204086e-01 2.950211e-01 3.892393e-01 2.073142e-01 3.920276e-01 2.653547e-01 3.522221e-01 3.836528e-01 4.038841e-01 4.336209e-01 2.385087e-01 4.393204e-02
<VARIANCE> 13
 7.031544e-03 5.964344e-03 5.837698e-03 1.040850e-02 7.542153e-03 7.046528e-03 6.188515e-03 5.833071e-03 1.139261e-02 7.080625e-03 7.495144e-03 7.097671e-03 2.422234e-04
<GCONST> -4.355951e+01
<MIXTURE> 3 3.850853e-01
<MEAN> 13
 5.485558e-01 4.549795e-01 2.983039e-01 4.097367e-01 3.980208e-01 2.956665e-01 3.501756e-01 4.165977e-01 3.488429e-01 5.943322e-01 2.687096e-01 4.952588e-01 1.599264e-03
<VARIANCE> 13
 7.365271e-03 4.901324e-03 5.015381e-03 9.740755e-03 7.151684e-03 7.072023e-03 6.070749e-03 9.802684e-03 8.272873e-03 5.922185e-03 7.531050e-03 1.287743e-02 5.763423e-05
<GCONST> -4.481112e+01
<MIXTURE> 4 1.574750e-01
<MEAN> 13
 2.727797e-01 1.576261e-01 3.156685e-01 4.939055e-01 1.158800e-01 3.560511e-01 2.011139e-01 3.430244e-01 3.750568e-01 3.525299e-01 4.233671e-01 2.324808e-01 3.960666e-02
<VARIANCE> 13
 5.606536e-04 3.633861e-04 5.932154e-04 1.244586e-03 8.623028e-04 6.284806e-04 6.138423e-04 1.475405e-03 1.238827e-03 1.117714e-03 1.042467e-03 1.344961e-03 2.258718e-04
<GCONST> -6.933882e+01
<MIXTURE> 5 2.526919e-01
<MEAN> 13
 3.445306e-01 4.138528e-01 4.221905e-01 4.659364e-01 4.851496e-01 4.882324e-01 5.404901e-01 4.010351e-01 3.896788e-01 6.533570e-01 4.045470e-01 4.184060e-01 1.795743e-03
<VARIANCE> 13
 5.679270e-03 4.035374e-03 7.998359e-03 1.525830e-02 6.273954e-03 7.162428e-03 1.302121e-02 1.774633e-02 7.293846e-03 1.143427e-02 1.074094e-02 1.172825e-02 5.763423e-05
<GCONST> -4.231805e+01
<STATE> 4
<NUMMIXES> 5
<MIXTURE> 1 2.344664e-01
<MEAN> 13
 2.534328e-01 1.423462e-01 3.243837e-01 5.134874e-01 1.088457e-01 3.636078e-01 1.862657e-01 3.453185e-01 3.886644e-01 3.397909e-01 4.387329e-01 2.128398e-01 5.144146e-02
<VARIANCE> 13
 2.843923e-04 1.814964e-04 2.148384e-04 5.832943e-04 3.675616e-04 3.109169e-04 2.550911e-04 5.997783e-04 5.333723e-04 5.092205e-04 6.690005e-04 7.871427e-04 1.119889e-04
<GCONST> -7.912978e+01
<MIXTURE> 2 2.189472e-01
<MEAN> 13
 4.383687e-01 2.890811e-01 2.228451e-01 3.994165e-01 2.832246e-01 3.046905e-01 2.273383e-01 3.666854e-01 3.122024e-01 4.689683e-01 2.977711e-01 3.422876e-01 2.783244e-02
<VARIANCE> 13
 2.977909e-03 3.488081e-03 2.716647e-03 7.839198e-03 7.380074e-03 3.246754e-03 4.032793e-03 5.787952e-03 4.100472e-03 3.528900e-03 5.071648e-03 5.502617e-03 4.166559e-04
<GCONST> -4.905714e+01
<MIXTURE> 3 2.235447e-01
<MEAN> 13
 4.100246e-01 4.517706e-01 3.850163e-01 4.659028e-01 5.986404e-01 4.856274e-01 5.196799e-01 5.659273e-01 5.032189e-01 6.605280e-01 4.207766e-01 5.513761e-01 2.391986e-03
<VARIANCE> 13
 7.594675e-03 5.619715e-03 7.441278e-03 1.478202e-02 1.737663e-02 9.081230e-03 9.867772e-03 1.210587e-02 8.714167e-03 8.247542e-03 6.628076e-03 1.166304e-02 5.763423e-05
<GCONST> -4.184097e+01
<MIXTURE> 4 2.305506e-01
<MEAN> 13
 3.253577e-01 1.943630e-01 2.696018e-01 4.441012e-01 1.865697e-01 3.490801e-01 1.940669e-01 3.567839e-01 3.832196e-01 3.913774e-01 3.975495e-01 2.691282e-01 3.899185e-02
<VARIANCE> 13
 2.127354e-03 1.791427e-03 1.425927e-03 5.063005e-03 3.084010e-03 1.410749e-03 1.737694e-03 3.351716e-03 2.842640e-03 2.768580e-03 3.866762e-03 2.492416e-03 3.077344e-04
<GCONST> -5.621114e+01
<MIXTURE> 5 9.249105e-02
<MEAN> 13
 3.068315e-01 5.182791e-01 4.842535e-01 2.679083e-01 4.861512e-01 5.276607e-01 4.593092e-01 3.329529e-01 4.250194e-01 4.414809e-01 5.643650e-01 4.429099e-01 3.176018e-02
<VARIANCE> 13
 1.265240e-02 7.758562e-03 6.570239e-03 8.352245e-03 9.869594e-03 1.044124e-02 6.007893e-03 9.038513e-03 9.934418e-03 7.989532e-03 1.542538e-02 8.432768e-03 9.904100e-04
<GCONST> -3.945426e+01
<STATE> 5
<NUMMIXES> 5
<MIXTURE> 1 6.321488e-02
<MEAN> 13
 2.829643e-01 6.453908e-01 6.294513e-01 3.504305e-01 7.202053e-01 6.496288e-01 6.089202e-01 5.509178e-01 5.680340e-01 4.348651e-01 7.270318e-01 4.867924e-01 8.044102e-02
<VARIANCE> 13
 4.836343e-03 6.649059e-03 6.662779e-03 1.154394e-02 7.163749e-03 1.023282e-02 5.023273e-03 1.029716e-02 6.456916e-03 4.327463e-03 6.315153e-03 5.423761e-03 5.836904e-03
<GCONST> -4.122642e+01
<MIXTURE> 2 9.005132e-02
<MEAN> 13
 4.446283e-01 7.492253e-01 7.452040e-01 4.969299e-01 6.268600e-01 5.348476e-01 5.126688e-01 5.580105e-01 5.341215e-01 4.264552e-01 8.081012e-01 4.699728e-01 6.781541e-01
<VARIANCE> 13
 1.506373e-02 4.397390e-03 9.206968e-03 1.237384e-02 1.294626e-02 1.178019e-02 4.501848e-03 6.469482e-03 1.027190e-02 8.070884e-03 7.659769e-03 4.083406e-03 8.976474e-02
<GCONST> -3.622298e+01
<MIXTURE> 3 3.070920e-01
<MEAN> 13
 2.232158e-01 3.500332e-01 3.630007e-01 2.381474e-01 3.644326e-01 4.602158e-01 3.206728e-01 3.426164e-01 4.573463e-01 3.471931e-01 5.048009e-01 3.568324e-01 3.804060e-02
<VARIANCE> 13
 6.551918e-03 1.241908e-02 1.133510e-02 1.024906e-02 9.723972e-03 6.044899e-03 5.317685e-03 1.592997e-02 8.573383e-03 1.354625e-02 9.349816e-03 7.399756e-03 5.748266e-04
<GCONST> -3.980339e+01
<MIXTURE> 4 7.970231e-02
<MEAN> 13
 4.917485e-01 6.192709e-01 4.934029e-01 4.408545e-01 6.711580e-01 5.558269e-01 5.508540e-01 4.968264e-01 4.348173e-01 6.588427e-01 4.804660e-01 4.754240e-01 5.581698e-02
<VARIANCE> 13
 3.665812e-03 6.653189e-03 1.143171e-02 1.251202e-02 7.342796e-03 1.373235e-02 9.975752e-03 1.022487e-02 6.189174e-03 8.162651e-03 1.489053e-02 1.509628e-02 2.905678e-03
<GCONST> -3.810852e+01
<MIXTURE> 5 4.599395e-01
<MEAN> 13
 2.705571e-01 4.816871e-01 5.068460e-01 3.909878e-01 6.028039e-01 5.910964e-01 6.068842e-01 5.051644e-01 5.444071e-01 5.658298e-01 5.430384e-01 5.317949e-01 4.172171e-03
<VARIANCE> 13
 5.987529e-03 4.609487e-03 5.771965e-03 1.647063e-02 1.025648e-02 1.081254e-02 6.975749e-03 1.603068e-02 1.208543e-02 9.409092e-03 9.435942e-03 8.942637e-03 5.763423e-05
<GCONST> -4.229507e+01
<STATE> 6
<NUMMIXES> 5
<MIXTURE> 1 3.454744e-02
<MEAN> 13
 4.463747e-01 5.378610e-01 4.628496e-01 4.185966e-01 5.450890e-01 4.542928e-01 4.720590e-01 4.672132e-01 4.385092e-01 5.921811e-01 4.406591e-01 4.296078e-01 1.146533e-02
<VARIANCE> 13
 4.556216e-03 6.249215e-03 2.193200e-02 1.613750e-02 1.087384e-02 8.374917e-03 1.558048e-02 1.510579e-02 7.909857e-03 1.007619e-02 2.199417e-02 1.418866e-02 1.430545e-04
<GCONST> -3.854070e+01
<MIXTURE> 2 3.619365e-01
<MEAN> 13
 2.638778e-01 3.477832e-01 4.440428e-01 4.896891e-01 4.831103e-01 4.965653e-01 6.194439e-01 5.897968e-01 5.632991e-01 6.554000e-01 4.986678e-01 5.529040e-01 5.755015e-04
<VARIANCE> 13
 3.772802e-03 2.693121e-03 3.189148e-03 1.114506e-02 5.508011e-03 6.066198e-03 5.920475e-03 1.086937e-02 8.904163e-03 5.620341e-03 5.147142e-03 6.426001e-03 5.763423e-05
<GCONST> -4.778778e+01
<MIXTURE> 3 1.464828e-01
<MEAN> 13
 1.657013e-01 3.892177e-01 4.474892e-01 2.740012e-01 4.519809e-01 5.253837e-01 4.625847e-01 3.848620e-01 5.184304e-01 4.119227e-01 5.176573e-01 4.382811e-01 9.656551e-03
<VARIANCE> 13
 3.405221e-03 3.795909e-03 5.992139e-03 9.620756e-03 1.107524e-02 1.150656e-02 6.103108e-03 1.554111e-02 8.831982e-03 9.117344e-03 8.583223e-03 7.524203e-03 5.763423e-05
<GCONST> -4.419204e+01
<MIXTURE> 4 3.195573e-01
<MEAN> 13
 2.424858e-01 2.168312e-01 2.832469e-01 3.841024e-01 3.103815e-01 4.161198e-01 3.697510e-01 4.160392e-01 4.362772e-01 5.145015e-01 4.442015e-01 3.853198e-01 6.549825e-03
<VARIANCE> 13
 2.581446e-03 2.589819e-03 3.214210e-03 8.998092e-03 7.395414e-03 5.375531e-03 9.966672e-03 8.253369e-03 1.020439e-02 6.227904e-03 4.536232e-03 8.030682e-03 5.763423e-05
<GCONST> -4.765772e+01
<MIXTURE> 5 1.374760e-01
<MEAN> 13
 1.307650e-01 2.227671e-01 3.791278e-01 4.260854e-01 3.937898e-01 4.693958e-01 5.014868e-01 5.466496e-01 5.600443e-01 5.390342e-01 5.209227e-01 4.559486e-01 4.043253e-03
<VARIANCE> 13
 2.673019e-03 3.014534e-03 4.533272e-03 7.650887e-03 7.037066e-03 6.999425e-03 6.786839e-03 1.262167e-02 7.887052e-03 8.623895e-03 8.756476e-03 1.114113e-02 5.763423e-05
<GCONST> -4.598152e+01
<STATE> 7
<NUMMIXES> 5
<MIXTURE> 1 5.284714e-02
<MEAN> 13
 5.189947e-01 4.723392e-01 2.842778e-01 3.593226e-01 5.036668e-01 2.938966e-01 3.542752e-01 4.362153e-01 3.080648e-01 5.942886e-01 2.949333e-01 4.343886e-01 2.495469e-02
<VARIANCE> 13
 2.384188e-03 5.459985e-03 7.165320e-03 8.006955e-03 1.199763e-02 5.112616e-03 3.932745e-03 1.056803e-02 3.146542e-03 4.733148e-03 5.948846e-03 1.676041e-02 1.193352e-03
<GCONST> -4.396908e+01
<MIXTURE> 2 2.813300e-01
<MEAN> 13
 3.098533e-01 4.153404e-01 4.198979e-01 3.535448e-01 4.399594e-01 4.008545e-01 4.201441e-01 3.295104e-01 3.723989e-01 5.183412e-01 4.566886e-01 4.475760e-01 3.697396e-03
<VARIANCE> 13
 4.010724e-03 3.637659e-03 6.730140e-03 1.020137e-02 9.589462e-03 9.155448e-03 1.033592e-02 8.134596e-03 1.446232e-02 8.127610e-03 6.951006e-03 1.380259e-02 5.763423e-05
<GCONST> -4.361530e+01
<MIXTURE> 3 1.720062e-01
<MEAN> 13
 3.898610e-01 4.198171e-01 4.455715e-01 5.056016e-01 4.608936e-01 4.091152e-01 5.547468e-01 5.706471e-01 5.166752e-01 6.571237e-01 4.550508e-01 5.685472e-01 7.334842e-04
<VARIANCE> 13
 3.709948e-03 3.452606e-03 5.478693e-03 8.068235e-03 7.966292e-03 7.169989e-03 7.086579e-03 7.797580e-03 6.000517e-03 6.120786e-03 6.287417e-03 1.236814e-02 5.763423e-05
<GCONST> -4.640876e+01
<MIXTURE> 4 3.979493e-01
<MEAN> 13
 3.289399e-01 3.217352e-01 3.158504e-01 4.055551e-01 4.173760e-01 3.799124e-01 4.531377e-01 4.926960e-01 4.526108e-01 5.888448e-01 4.062817e-01 5.167878e-01 1.100377e-03
<VARIANCE> 13
 5.617632e-03 2.627394e-03 5.281210e-03 1.085078e-02 8.023079e-03 8.596338e-03 9.124192e-03 8.404416e-03 9.907574e-03 7.003807e-03 6.877054e-03 1.088690e-02 5.763423e-05
<GCONST> -4.489291e+01
<MIXTURE> 5 9.586740e-02
<MEAN> 13
 4.710259e-01 5.193416e-01 4.216510e-01 3.897017e-01 5.191653e-01 3.540861e-01 4.113928e-01 4.232120e-01 3.800801e-01 5.876918e-01 3.859423e-01 4.054987e-01 4.619233e-03
<VARIANCE> 13
 2.838641e-03 2.775556e-03 2.751400e-03 6.042699e-03 8.633145e-03 1.286396e-02 4.988677e-03 7.035554e-03 5.989667e-03 5.659889e-03 9.198614e-03 5.425897e-03 5.763423e-05
<GCONST> -4.818505e+01
<STATE> 8
<NUMMIXES> 5
<MIXTURE> 1 8.529977e-04
<MEAN> 13
 7.257132e-01 4.179090e-01 2.240221e-01 7.695258e-01 5.410044e-01 6.200409e-01 4.573661e-01 6.726323e-01 4.203372e-01 7.221189e-01 3.153530e-01 5.288150e-01 1.390206e-02
<VARIANCE> 13
 1.482451e-04 1.814964e-04 1.954545e-04 1.454516e-03 3.500748e-04 1.616974e-03 2.724358e-04 1.602602e-04 1.965728e-04 5.795483e-03 2.517690e-03 2.073430e-04 5.763423e-05
<GCONST> -7.785526e+01
<MIXTURE> 2 3.277654e-01
<MEAN> 13
 3.472224e-01 4.474309e-01 4.162011e-01 4.275374e-01 5.826989e-01 5.547698e-01 5.629862e-01 5.331887e-01 5.358794e-01 6.311510e-01 4.785405e-01 5.549607e-01 2.445715e-03
<VARIANCE> 13
 5.135887e-03 4.629940e-03 7.028582e-03 1.927541e-02 8.898259e-03 8.350401e-03 1.350123e-02 1.361656e-02 1.156038e-02 1.171932e-02 6.425042e-03 9.678679e-03 5.763423e-05
<GCONST> -4.212326e+01
<MIXTURE> 3 6.334092e-02
<MEAN> 13
 6.190970e-01 5.759379e-01 3.774882e-01 5.421001e-01 6.717381e-01 4.958005e-01 5.175245e-01 6.683034e-01 4.703957e-01 7.186971e-01 4.151515e-01 5.361910e-01 2.117501e-02
<VARIANCE> 13
 3.964328e-03 5.013422e-03 7.125701e-03 1.326991e-02 8.717475e-03 1.505555e-02 7.559975e-03 8.183318e-03 5.786568e-03 5.614245e-03 9.299194e-03 1.102434e-02 3.362118e-04
<GCONST> -4.234685e+01
<MIXTURE> 4 2.917283e-01
<MEAN> 13
 4.764307e-01 5.758851e-01 5.100762e-01 4.585245e-01 5.875659e-01 4.694551e-01 4.920855e-01 4.764227e-01 4.741233e-01 6.237419e-01 4.875975e-01 4.713495e-01 5.704033e-03
<VARIANCE> 13
 4.333975e-03 2.528653e-03 3.921123e-03 7.164454e-03 9.459177e-03 1.237219e-02 6.584247e-03 9.645437e-03 7.323032e-03 8.564348e-03 8.374424e-03 7.747981e-03 5.763423e-05
<GCONST> -4.580752e+01
<MIXTURE> 5 3.163125e-01
<MEAN> 13
 5.438740e-01 4.668052e-01 3.296854e-01 5.043001e-01 5.235510e-01 4.239992e-01 4.716445e-01 5.701270e-01 4.719265e-01 6.802873e-01 3.437677e-01 5.789683e-01 1.909769e-03
<VARIANCE> 13
 7.640115e-03 3.230634e-03 6.142075e-03 1.337472e-02 8.780266e-03 8.269478e-03 8.846856e-03 1.075063e-02 9.976325e-03 7.191056e-03 7.573722e-03 1.124221e-02 5.763423e-05
<GCONST> -4.358992e+01
<STATE> 9
<NUMMIXES> 5
<MIXTURE> 1 1.977129e-01
<MEAN> 13
 4.682855e-01 7.056367e-01 6.960930e-01 4.653702e-01 5.636909e-01 4.746109e-01 5.537696e-01 4.786045e-01 4.890653e-01 5.771858e-01 5.995966e-01 4.795898e-01 4.156290e-02
<VARIANCE> 13
 4.226626e-03 3.251622e-03 6.818613e-03 8.080941e-03 9.652806e-03 1.326970e-02 6.552739e-03 9.090085e-03 9.799090e-03 1.157577e-02 7.386171e-03 9.048837e-03 8.663725e-04
<GCONST> -4.154889e+01
<MIXTURE> 2 1.000937e-01
<MEAN> 13
 5.674663e-01 7.353438e-01 6.473828e-01 4.872409e-01 5.597460e-01 5.117179e-01 5.455028e-01 4.749277e-01 4.554836e-01 6.001542e-01 5.375683e-01 5.507959e-01 3.366366e-01
<VARIANCE> 13
 8.858238e-03 8.550175e-03 1.480136e-02 1.442285e-02 1.123011e-02 1.922010e-02 7.620046e-03 1.320158e-02 7.570085e-03 7.079919e-03 1.067627e-02 1.125034e-02 7.477383e-02
<GCONST> -3.314756e+01
<MIXTURE> 3 3.880310e-01
<MEAN> 13
 2.330011e-01 4.866527e-01 5.765015e-01 4.381554e-01 5.841337e-01 5.209121e-01 5.659238e-01 5.373244e-01 5.625534e-01 4.733027e-01 5.766980e-01 5.986184e-01 4.156459e-03
<VARIANCE> 13
 5.905882e-03 3.686105e-03 6.672834e-03 9.825192e-03 7.776816e-03 9.635789e-03 6.853552e-03 1.638919e-02 1.161560e-02 9.634520e-03 8.785465e-03 8.784088e-03 5.763423e-05
<GCONST> -4.339678e+01
<MIXTURE> 4 9.604604e-02
<MEAN> 13
 5.438918e-01 5.741202e-01 4.760223e-01 5.190045e-01 5.636967e-01 4.293707e-01 4.818570e-01 4.986085e-01 4.030684e-01 6.878465e-01 4.633396e-01 4.643053e-01 4.422664e-02
<VARIANCE> 13
 6.016944e-03 5.712418e-03 4.141271e-03 1.176142e-02 1.236082e-02 1.463057e-02 1.034941e-02 1.795187e-02 5.621126e-03 8.293141e-03 7.215461e-03 8.224682e-03 1.473383e-03
<GCONST> -3.975021e+01
<MIXTURE> 5 2.181163e-01
<MEAN> 13
 2.800311e-01 6.086854e-01 6.276488e-01 3.539340e-01 6.294696e-01 6.157013e-01 5.884000e-01 4.535976e-01 5.959048e-01 4.812183e-01 5.556098e-01 5.626212e-01 1.897142e-02
<VARIANCE> 13
 5.377554e-03 3.304683e-03 8.591083e-03 1.263058e-02 7.122865e-03 1.108781e-02 9.421895e-03 1.501908e-02 1.203908e-02 9.492769e-03 1.010393e-02 5.979891e-03 3.081004e-04
<GCONST> -4.135979e+01
<STATE> 10
<NUMMIXES> 5
<MIXTURE> 1 3.369632e-02
<MEAN> 13
 2.653654e-01 6.751107e-01 7.135971e-01 3.237495e-01 5.738264e-01 5.219011e-01 3.844236e-01 3.265101e-01 6.386353e-01 3.342701e-01 6.997564e-01 5.174326e-01 6.156737e-02
<VARIANCE> 13
 5.039022e-03 3.933440e-03 5.255491e-03 3.774584e-03 3.646411e-03 8.957088e-03 5.983965e-03 5.355702e-03 5.009400e-03 3.614635e-03 6.414570e-03 4.956933e-03 1.213609e-03
<GCONST> -4.643143e+01
<MIXTURE> 2 5.203343e-02
<MEAN> 13
 2.715388e-01 6.903286e-01 7.965199e-01 4.521997e-01 5.613482e-01 4.212819e-01 3.990275e-01 5.286897e-01 7.682454e-01 3.769115e-01 6.664487e-01 5.652502e-01 2.929803e-02
<VARIANCE> 13
 7.723177e-03 5.601901e-03 2.715392e-03 7.086616e-03 6.307702e-03 8.910255e-03 8.586103e-03 8.493197e-03 6.406521e-03 1.510529e-02 6.037223e-03 6.740700e-03 5.876886e-04
<GCONST> -4.311864e+01
<MIXTURE> 3 2.082583e-01
<MEAN> 13
 2.897617e-01 4.592763e-01 5.981807e-01 6.203163e-01 5.116819e-01 4.990560e-01 6.563693e-01 5.148618e-01 4.457337e-01 6.646564e-01 5.289468e-01 5.625170e-01 1.462023e-03
<VARIANCE> 13
 6.741170e-03 4.716037e-03 6.442114e-03 9.232786e-03 6.520967e-03 5.937859e-03 5.313379e-03 1.495661e-02 1.492189e-02 6.294965e-03 6.275521e-03 1.218974e-02 5.763423e-05
<GCONST> -4.430565e+01
<MIXTURE> 4 3.524149e-01
<MEAN> 13
 2.978367e-01 4.379048e-01 5.356207e-01 4.891760e-01 4.635541e-01 3.935610e-01 5.438136e-01 4.924756e-01 4.889944e-01 5.761462e-01 4.887003e-01 6.190519e-01 3.841299e-04
<VARIANCE> 13
 2.858961e-03 2.111636e-03 3.113214e-03 6.749717e-03 4.892276e-03 6.131475e-03 6.156428e-03 1.097568e-02 9.812388e-03 5.671629e-03 6.210333e-03 8.864199e-03 5.763423e-05
<GCONST> -4.827735e+01
<MIXTURE> 5 3.535971e-01
<MEAN> 13
 3.725265e-01 6.070839e-01 6.902238e-01 5.008692e-01 5.026324e-01 3.751366e-01 5.354578e-01 4.815500e-01 5.153267e-01 5.788268e-01 5.350860e-01 5.566020e-01 2.889340e-03
<VARIANCE> 13
 6.786234e-03 3.504505e-03 4.568605e-03 7.071049e-03 7.907829e-03 1.059336e-02 7.565643e-03 9.834096e-03 1.003424e-02 6.940881e-03 7.161187e-03 9.685017e-03 5.763423e-05
<GCONST> -4.489765e+01
<STATE> 11
<NUMMIXES> 5
<MIXTURE> 1 2.420837e-01
<MEAN> 13
 4.248895e-01 4.605152e-01 5.071009e-01 5.202320e-01 3.685453e-01 2.943198e-01 4.393679e-01 4.549108e-01 4.360696e-01 5.688484e-01 4.122580e-01 5.541764e-01 6.757326e-05
<VARIANCE> 13
 3.082908e-03 1.235418e-03 2.187172e-03 4.985185e-03 4.190729e-03 4.496646e-03 4.074211e-03 6.508399e-03 5.500133e-03 4.363357e-03 5.672876e-03 7.822229e-03 5.763423e-05
<GCONST> -5.185104e+01
<MIXTURE> 2 2.497160e-01
<MEAN> 13
 4.070438e-01 3.822814e-01 4.176882e-01 5.011565e-01 3.378025e-01 3.098696e-01 4.365396e-01 4.869556e-01 4.458373e-01 5.850255e-01 4.170009e-01 5.610277e-01 3.263351e-05
<VARIANCE> 13
 2.461894e-03 1.170211e-03 1.954770e-03 4.794162e-03 3.460516e-03 3.713575e-03 4.225008e-03 7.254556e-03 5.353727e-03 4.050654e-03 5.008557e-03 7.254671e-03 5.763423e-05
<GCONST> -5.282074e+01
<MIXTURE> 3 1.271761e-01
<MEAN> 13
 3.274055e-01 3.509832e-01 4.334136e-01 5.303797e-01 4.078562e-01 3.911373e-01 5.373788e-01 5.601460e-01 4.841407e-01 6.152536e-01 4.648785e-01 5.979667e-01 8.131721e-05
<VARIANCE> 13
 3.768618e-03 1.280660e-03 2.231546e-03 6.744525e-03 4.632645e-03 4.659242e-03 4.146448e-03 1.096461e-02 8.504586e-03 5.518453e-03 5.042137e-03 8.521620e-03 5.763423e-05
<GCONST> -4.997850e+01
<MIXTURE> 4 2.213610e-01
<MEAN> 13
 4.211820e-01 4.375771e-01 4.890298e-01 5.500410e-01 4.036853e-01 3.657111e-01 5.263532e-01 5.772280e-01 5.144691e-01 6.278608e-01 4.548901e-01 5.961080e-01 3.704254e-05
<VARIANCE> 13
 2.499049e-03 7.561180e-04 1.637904e-03 5.087781e-03 4.090522e-03 4.027653e-03 3.340877e-03 5.847389e-03 5.426026e-03 4.288096e-03 4.769002e-03 6.234370e-03 5.763423e-05
<GCONST> -5.369210e+01
<MIXTURE> 5 1.596631e-01
<MEAN> 13
 4.434612e-01 5.189326e-01 5.734021e-01 5.594314e-01 4.337701e-01 3.541824e-01 5.338852e-01 5.525073e-01 5.126298e-01 6.225218e-01 4.616244e-01 5.933532e-01 1.005870e-04
<VARIANCE> 13
 3.433410e-03 1.287642e-03 2.334313e-03 6.735981e-03 5.310100e-03 5.585987e-03 5.274228e-03 8.373179e-03 5.487739e-03 5.181110e-03 5.496794e-03 8.249437e-03 5.763423e-05
<GCONST> -5.018092e+01
<TRANSP> 12
 0.000000e+00 1.000000e+00 0.000000e+00 0.000000e+00 0.000000e+00 0.000000e+00 0.000000e+00 0.000000e+00 0.000000e+00 0.000000e+00 0.000000e+00 0.000000e+00
 0.000000e+00 7.960234e-01 2.039766e-01 0.000000e+00 0.000000e+00 0.000000e+00 0.000000e+00 0.000000e+00 0.000000e+00 0.000000e+00 0.000000e+00 0.000000e+00
 0.000000e+00 0.000000e+00 7.518928e-01 2.481072e-01 0.000000e+00 0.000000e+00 0.000000e+00 0.000000e+00 0.000000e+00 0.000000e+00 0.000000e+00 0.000000e+00
 0.000000e+00 0.000000e+00 0.000000e+00 7.943760e-01 2.056240e-01 0.000000e+00 0.000000e+00 0.000000e+00 0.000000e+00 0.000000e+00 0.000000e+00 0.000000e+00
 0.000000e+00 0.000000e+00 0.000000e+00 0.000000e+00 8.199844e-01 1.800156e-01 0.000000e+00 0.000000e+00 0.000000e+00 0.000000e+00 0.000000e+00 0.000000e+00
 0.000000e+00 0.000000e+00 0.000000e+00 0.000000e+00 0.000000e+00 8.440596e-01 1.559404e-01 0.000000e+00 0.000000e+00 0.000000e+00 0.000000e+00 0.000000e+00
 0.000000e+00 0.000000e+00 0.000000e+00 0.000000e+00 0.000000e+00 0.000000e+00 8.645259e-01 1.354742e-01 0.000000e+00 0.000000e+00 0.000000e+00 0.000000e+00
 0.000000e+00 0.000000e+00 0.000000e+00 0.000000e+00 0.000000e+00 0.000000e+00 0.000000e+00 8.720509e-01 1.279491e-01 0.000000e+00 0.000000e+00 0.000000e+00
 0.000000e+00 0.000000e+00 0.000000e+00 0.000000e+00 0.000000e+00 0.000000e+00 0.000000e+00 0.000000e+00 8.845217e-01 1.154783e-01 0.000000e+00 0.000000e+00
 0.000000e+00 0.000000e+00 0.000000e+00 0.000000e+00 0.000000e+00 0.000000e+00 0.000000e+00 0.000000e+00 0.000000e+00 9.130040e-01 8.699603e-02 0.000000e+00
 0.000000e+00 0.000000e+00 0.000000e+00 0.000000e+00 0.000000e+00 0.000000e+00 0.000000e+00 0.000000e+00 0.000000e+00 0.000000e+00 9.416379e-01 5.836213e-02
 0.000000e+00 0.000000e+00 0.000000e+00 0.000000e+00 0.000000e+00 0.000000e+00 0.000000e+00 0.000000e+00 0.000000e+00 0.000000e+00 0.000000e+00 0.000000e+00
<ENDHMM>
